svm_type c_svc
kernel_type poly
gamma 1.0
degree 3.0
coef0 1.0
nr_class 2
total_sv 12
rho 2.2211163504019455
label -1 1
nr_sv 6 6
SV
100.0 1:0.397959183673 2:-0.234693877551
25.5361722367 1:-0.316326530612 2:-0.214285714286
100.0 1:0.336734693878 2:-0.030612244898
13.2582199397 1:-0.214285714286 2:0.132653061224
51.5274502148 1:0.214285714286 2:0.19387755102
100.0 1:-0.0510204081633 2:0.255102040816
-62.0994247985 1:0.418367346939 2:-0.397959183673
-9.32618275349 1:0.275510204082 2:-0.0918367346939
-100.0 1:0.214285714286 2:0.0102040816327
-100.0 1:0.214285714286 2:0.0714285714286
-18.8962348392 1:0.0510204081633 2:0.132653061224
-100.0 1:-0.030612244898 2:0.173469387755
