svm_type c_svc
kernel_type rbf
gamma 100.0
degree 3
coef0 0.0
nr_class 2
total_sv 28
rho 0.16680290024000682
label -1 1
nr_sv 13 15
SV
0.822851554419 1:-0.275510204082 2:-0.479591836735
0.847522429774 1:-0.030612244898 2:-0.459183673469
0.285947563607 1:-0.377551020408 2:-0.438775510204
0.94169804186 1:-0.459183673469 2:-0.418367346939
0.770227621197 1:-0.173469387755 2:-0.397959183673
0.184191317608 1:-0.255102040816 2:-0.377551020408
0.475368075366 1:-0.0102040816327 2:-0.377551020408
0.672296846215 1:-0.336734693878 2:-0.316326530612
1.02615977917 1:0.0102040816327 2:-0.255102040816
0.867041950197 1:-0.397959183673 2:-0.214285714286
1.04815591651 1:-0.173469387755 2:-0.19387755102
0.521402375431 1:-0.295918367347 2:-0.112244897959
0.864389401303 1:-0.357142857143 2:-0.0510204081633
-0.65983469568 1:0.357142857143 2:-0.030612244898
-0.72704879388 1:-0.030612244898 2:0.0102040816327
-0.656661993236 1:0.438775510204 2:0.0510204081633
-0.683121341666 1:-0.0918367346939 2:0.132653061224
-0.564448411513 1:0.132653061224 2:0.173469387755
-0.522228111332 1:0.0714285714286 2:0.234693877551
-0.715797071823 1:-0.377551020408 2:0.255102040816
-0.788026437178 1:0.316326530612 2:0.255102040816
-0.656362726107 1:-0.0918367346939 2:0.316326530612
-0.238783926935 1:-0.438775510204 2:0.336734693878
-0.526155932491 1:0.418367346939 2:0.397959183673
-0.658600901517 1:-0.438775510204 2:0.418367346939
-0.610310314361 1:-0.112244897959 2:0.438775510204
-0.574344950799 1:0.357142857143 2:0.459183673469
-0.745527264152 1:-0.255102040816 2:0.479591836735
