svm_type c_svc
kernel_type rbf
gamma 360.0
degree 3
coef0 0.0
nr_class 2
total_sv 28
rho 0.08228268679713928
label -1 1
nr_sv 13 15
SV
1.0479562234013045 1:-0.275510204081633 2:-0.479591836734694
1.0039107544517296 1:-0.0306122448979592 2:-0.459183673469388
0.9862081135047732 1:-0.377551020408163 2:-0.438775510204082
1.0050615087010488 1:-0.459183673469388 2:-0.418367346938776
1.005034492739306 1:-0.173469387755102 2:-0.397959183673469
0.9564562559430168 1:-0.255102040816327 2:-0.377551020408163
0.9996232848190633 1:-0.0102040816326531 2:-0.377551020408163
1.0507002666906868 1:-0.336734693877551 2:-0.316326530612245
1.0784841504602785 1:0.0102040816326531 2:-0.255102040816327
1.0753867789465865 1:-0.397959183673469 2:-0.214285714285714
1.0817718531304137 1:-0.173469387755102 2:-0.193877551020408
1.0131339088874376 1:-0.295918367346939 2:-0.112244897959184
1.0142014216854165 1:-0.357142857142857 2:-0.0510204081632653
-0.9102763746209342 1:0.357142857142857 2:-0.0306122448979592
-0.9166605846269508 1:-0.0306122448979592 2:0.0102040816326531
-0.9106557035421364 1:0.438775510204082 2:0.0510204081632653
-0.9165644547752826 1:-0.0918367346938775 2:0.13265306122449
-0.8604110218407403 1:0.13265306122449 2:0.173469387755102
-0.8597758387046798 1:0.0714285714285714 2:0.23469387755102
-0.8982233423189486 1:-0.377551020408163 2:0.255102040816326
-0.9177954684064905 1:0.316326530612245 2:0.255102040816326
-0.9140763243799448 1:-0.0918367346938775 2:0.316326530612245
-0.8198791740575411 1:-0.438775510204082 2:0.336734693877551
-0.8596780299983083 1:0.418367346938776 2:0.397959183673469
-0.8431369502183298 1:-0.438775510204082 2:0.418367346938776
-0.913781692269707 1:-0.112244897959184 2:0.438775510204082
-0.8597141930820161 1:0.357142857142857 2:0.459183673469388
-0.9172998605190505 1:-0.255102040816327 2:0.479591836734694
