svm_type c_svc
kernel_type linear
gamma 1.0
degree 3
coef0 0.0
nr_class 2
total_sv 30
rho -0.14278038193824918
label -1 1
nr_sv 15 15
SV
100.0 1:-0.377551020408163 2:-0.479591836734694
100.0 1:-0.459183673469388 2:-0.418367346938776
100.0 1:-0.459183673469388 2:-0.336734693877551
100.0 1:-0.377551020408163 2:-0.275510204081633
100.0 1:0.397959183673469 2:-0.23469387755102
100.0 1:-0.316326530612245 2:-0.214285714285714
100.0 1:0.459183673469388 2:-0.13265306122449
100.0 1:-0.295918367346939 2:-0.0918367346938775
100.0 1:0.336734693877551 2:-0.0306122448979592
100.0 1:0.316326530612245 2:0.0918367346938775
100.0 1:0.214285714285714 2:0.193877551020408
97.01675578511133 1:-0.0510204081632653 2:0.255102040816326
100.0 1:0.397959183673469 2:0.295918367346939
100.0 1:0.316326530612245 2:0.397959183673469
16.548086838085467 1:0.13265306122449 2:0.438775510204082
-13.564842623196753 1:-0.0714285714285715 2:-0.479591836734694
-100.0 1:-0.214285714285714 2:-0.397959183673469
-100.0 1:-0.214285714285714 2:-0.316326530612245
-100.0 1:0.0102040816326531 2:-0.316326530612245
-100.0 1:-0.0714285714285715 2:-0.173469387755102
-100.0 1:-0.173469387755102 2:-0.112244897959184
-100.0 1:0.275510204081633 2:-0.0918367346938775
-100.0 1:0.0714285714285714 2:-0.0714285714285715
-100.0 1:-0.0510204081632653 2:0.0102040816326531
-100.0 1:0.214285714285714 2:0.0102040816326531
-100.0 1:0.214285714285714 2:0.0714285714285714
-100.0 1:0.13265306122449 2:0.0918367346938775
-100.0 1:-0.0510204081632653 2:0.112244897959184
-100.0 1:0.0510204081632653 2:0.13265306122449
-100.0 1:-0.0306122448979592 2:0.173469387755102
